digraph Tree {
node [shape=box, style="filled, rounded", color="black", fontname=helvetica] ;
edge [fontname=helvetica] ;
0 [label="RVSP <= 0.3\ngini = 0.19\nsamples = 43\nvalue = [60, 7]", fillcolor="#e89050"] ;
1 [label="Hx of Malignancy (1/0) <= 0.5\ngini = 0.4\nsamples = 8\nvalue = [8, 3]", fillcolor="#efb083"] ;
0 -> 1 [labeldistance=2.5, labelangle=45, headlabel="True"] ;
2 [label="gini = 0.0\nsamples = 5\nvalue = [7, 0]", fillcolor="#e58139"] ;
1 -> 2 ;
3 [label="CTEPH (1/0) <= 0.5\ngini = 0.38\nsamples = 3\nvalue = [1, 3]", fillcolor="#7bbeee"] ;
1 -> 3 ;
4 [label="gini = 0.0\nsamples = 2\nvalue = [0, 3]", fillcolor="#399de5"] ;
3 -> 4 ;
5 [label="gini = 0.0\nsamples = 1\nvalue = [1, 0]", fillcolor="#e58139"] ;
3 -> 5 ;
6 [label="RVSP <= 0.95\ngini = 0.13\nsamples = 35\nvalue = [52, 4]", fillcolor="#e78b48"] ;
0 -> 6 [labeldistance=2.5, labelangle=-45, headlabel="False"] ;
7 [label="gini = 0.0\nsamples = 16\nvalue = [27, 0]", fillcolor="#e58139"] ;
6 -> 7 ;
8 [label="Original FAC (%) <= 0.38\ngini = 0.24\nsamples = 19\nvalue = [25, 4]", fillcolor="#e99559"] ;
6 -> 8 ;
9 [label="RV Size <= 0.5\ngini = 0.49\nsamples = 6\nvalue = [5, 4]", fillcolor="#fae6d7"] ;
8 -> 9 ;
10 [label="Original ESA (cm2) <= 0.0\ngini = 0.44\nsamples = 4\nvalue = [2, 4]", fillcolor="#9ccef2"] ;
9 -> 10 ;
11 [label="gini = 0.0\nsamples = 3\nvalue = [0, 4]", fillcolor="#399de5"] ;
10 -> 11 ;
12 [label="gini = 0.0\nsamples = 1\nvalue = [2, 0]", fillcolor="#e58139"] ;
10 -> 12 ;
13 [label="gini = 0.0\nsamples = 2\nvalue = [3, 0]", fillcolor="#e58139"] ;
9 -> 13 ;
14 [label="gini = 0.0\nsamples = 13\nvalue = [20, 0]", fillcolor="#e58139"] ;
8 -> 14 ;
}